digraph Tree {
node [shape=box] ;
0 [label="CGPA <= 8.94\ngini = 0.433\nsamples = 300\nvalue = [205, 95]"] ;
1 [label="CGPA <= 8.63\ngini = 0.101\nsamples = 206\nvalue = [195, 11]"] ;
0 -> 1 [labeldistance=2.5, labelangle=45, headlabel="True"] ;
2 [label="LOR  <= 1.75\ngini = 0.013\nsamples = 157\nvalue = [156, 1]"] ;
1 -> 2 ;
3 [label="CGPA <= 8.165\ngini = 0.32\nsamples = 5\nvalue = [4, 1]"] ;
2 -> 3 ;
4 [label="gini = 0.0\nsamples = 4\nvalue = [4, 0]"] ;
3 -> 4 ;
5 [label="gini = 0.0\nsamples = 1\nvalue = [0, 1]"] ;
3 -> 5 ;
6 [label="gini = 0.0\nsamples = 152\nvalue = [152, 0]"] ;
2 -> 6 ;
7 [label="Research <= 0.5\ngini = 0.325\nsamples = 49\nvalue = [39, 10]"] ;
1 -> 7 ;
8 [label="gini = 0.0\nsamples = 19\nvalue = [19, 0]"] ;
7 -> 8 ;
9 [label="TOEFL Score <= 106.0\ngini = 0.444\nsamples = 30\nvalue = [20, 10]"] ;
7 -> 9 ;
10 [label="gini = 0.0\nsamples = 9\nvalue = [9, 0]"] ;
9 -> 10 ;
11 [label="GRE Score <= 320.5\ngini = 0.499\nsamples = 21\nvalue = [11, 10]"] ;
9 -> 11 ;
12 [label="GRE Score <= 313.0\ngini = 0.32\nsamples = 5\nvalue = [1, 4]"] ;
11 -> 12 ;
13 [label="gini = 0.0\nsamples = 1\nvalue = [1, 0]"] ;
12 -> 13 ;
14 [label="gini = 0.0\nsamples = 4\nvalue = [0, 4]"] ;
12 -> 14 ;
15 [label="CGPA <= 8.665\ngini = 0.469\nsamples = 16\nvalue = [10, 6]"] ;
11 -> 15 ;
16 [label="gini = 0.0\nsamples = 2\nvalue = [0, 2]"] ;
15 -> 16 ;
17 [label="SOP <= 3.25\ngini = 0.408\nsamples = 14\nvalue = [10, 4]"] ;
15 -> 17 ;
18 [label="gini = 0.0\nsamples = 3\nvalue = [3, 0]"] ;
17 -> 18 ;
19 [label="GRE Score <= 321.5\ngini = 0.463\nsamples = 11\nvalue = [7, 4]"] ;
17 -> 19 ;
20 [label="gini = 0.0\nsamples = 3\nvalue = [3, 0]"] ;
19 -> 20 ;
21 [label="LOR  <= 3.75\ngini = 0.5\nsamples = 8\nvalue = [4, 4]"] ;
19 -> 21 ;
22 [label="TOEFL Score <= 114.0\ngini = 0.375\nsamples = 4\nvalue = [1, 3]"] ;
21 -> 22 ;
23 [label="gini = 0.0\nsamples = 3\nvalue = [0, 3]"] ;
22 -> 23 ;
24 [label="gini = 0.0\nsamples = 1\nvalue = [1, 0]"] ;
22 -> 24 ;
25 [label="SOP <= 3.75\ngini = 0.375\nsamples = 4\nvalue = [3, 1]"] ;
21 -> 25 ;
26 [label="University Rating <= 3.5\ngini = 0.5\nsamples = 2\nvalue = [1, 1]"] ;
25 -> 26 ;
27 [label="gini = 0.0\nsamples = 1\nvalue = [0, 1]"] ;
26 -> 27 ;
28 [label="gini = 0.0\nsamples = 1\nvalue = [1, 0]"] ;
26 -> 28 ;
29 [label="gini = 0.0\nsamples = 2\nvalue = [2, 0]"] ;
25 -> 29 ;
30 [label="GRE Score <= 318.5\ngini = 0.19\nsamples = 94\nvalue = [10, 84]"] ;
0 -> 30 [labeldistance=2.5, labelangle=-45, headlabel="False"] ;
31 [label="GRE Score <= 313.5\ngini = 0.49\nsamples = 7\nvalue = [4, 3]"] ;
30 -> 31 ;
32 [label="gini = 0.0\nsamples = 2\nvalue = [2, 0]"] ;
31 -> 32 ;
33 [label="SOP <= 3.75\ngini = 0.48\nsamples = 5\nvalue = [2, 3]"] ;
31 -> 33 ;
34 [label="gini = 0.0\nsamples = 2\nvalue = [2, 0]"] ;
33 -> 34 ;
35 [label="gini = 0.0\nsamples = 3\nvalue = [0, 3]"] ;
33 -> 35 ;
36 [label="CGPA <= 9.105\ngini = 0.128\nsamples = 87\nvalue = [6, 81]"] ;
30 -> 36 ;
37 [label="Research <= 0.5\ngini = 0.33\nsamples = 24\nvalue = [5, 19]"] ;
36 -> 37 ;
38 [label="CGPA <= 9.03\ngini = 0.5\nsamples = 4\nvalue = [2, 2]"] ;
37 -> 38 ;
39 [label="gini = 0.0\nsamples = 2\nvalue = [2, 0]"] ;
38 -> 39 ;
40 [label="gini = 0.0\nsamples = 2\nvalue = [0, 2]"] ;
38 -> 40 ;
41 [label="CGPA <= 9.09\ngini = 0.255\nsamples = 20\nvalue = [3, 17]"] ;
37 -> 41 ;
42 [label="GRE Score <= 322.5\ngini = 0.117\nsamples = 16\nvalue = [1, 15]"] ;
41 -> 42 ;
43 [label="LOR  <= 3.5\ngini = 0.444\nsamples = 3\nvalue = [1, 2]"] ;
42 -> 43 ;
44 [label="gini = 0.0\nsamples = 1\nvalue = [1, 0]"] ;
43 -> 44 ;
45 [label="gini = 0.0\nsamples = 2\nvalue = [0, 2]"] ;
43 -> 45 ;
46 [label="gini = 0.0\nsamples = 13\nvalue = [0, 13]"] ;
42 -> 46 ;
47 [label="SOP <= 3.75\ngini = 0.5\nsamples = 4\nvalue = [2, 2]"] ;
41 -> 47 ;
48 [label="gini = 0.0\nsamples = 1\nvalue = [0, 1]"] ;
47 -> 48 ;
49 [label="SOP <= 4.5\ngini = 0.444\nsamples = 3\nvalue = [2, 1]"] ;
47 -> 49 ;
50 [label="gini = 0.0\nsamples = 2\nvalue = [2, 0]"] ;
49 -> 50 ;
51 [label="gini = 0.0\nsamples = 1\nvalue = [0, 1]"] ;
49 -> 51 ;
52 [label="CGPA <= 9.165\ngini = 0.031\nsamples = 63\nvalue = [1, 62]"] ;
36 -> 52 ;
53 [label="CGPA <= 9.155\ngini = 0.133\nsamples = 14\nvalue = [1, 13]"] ;
52 -> 53 ;
54 [label="gini = 0.0\nsamples = 12\nvalue = [0, 12]"] ;
53 -> 54 ;
55 [label="LOR  <= 4.25\ngini = 0.5\nsamples = 2\nvalue = [1, 1]"] ;
53 -> 55 ;
56 [label="gini = 0.0\nsamples = 1\nvalue = [1, 0]"] ;
55 -> 56 ;
57 [label="gini = 0.0\nsamples = 1\nvalue = [0, 1]"] ;
55 -> 57 ;
58 [label="gini = 0.0\nsamples = 49\nvalue = [0, 49]"] ;
52 -> 58 ;
}